<?xml version="1.0"?>
<!--
    (c) Copyright 2000-2018 CERN for the benefit of the LHCb Collaboration

    This software is distributed under the terms of the GNU General Public
    Licence version 3 (GPL Version 3), copied verbatim in the file "COPYING".

    In applying this licence, CERN does not waive the privileges and immunities
    granted to it by virtue of its status as an Intergovernmental Organization
    or submit itself to any jurisdiction.
-->
<MethodSetup Method="MLP::Deuteron_Downstream_TMVA">
  <GeneralInfo>
    <Info name="TMVA Release" value="4.2.1 [262657]"/>
    <Info name="ROOT Release" value="6.12/06 [396294]"/>
    <Info name="Creator" value="jonesc"/>
    <Info name="Date" value="Tue Apr 10 09:24:20 2018"/>
    <Info name="Host" value="Linux lcgapp-slc6-x86-64-2.cern.ch 2.6.32-696.18.7.el6.x86_64 #1 SMP Thu Jan 4 13:27:39 CET 2018 x86_64 x86_64 x86_64 GNU/Linux"/>
    <Info name="Dir" value="/var/pcfst/r01/lhcb/jonesc/ANNPID/results/MC2016Deuterons/TrainMixture/TrainPhysTks-EvalPhysTks-NoReweight-EqualSigBck0.25/GhostAccFrac0.05/PrAccF0.5/KaAccF0.5/PiAccF1.0/TMVA-Run2-NoTkLikCDVelodEdx/MLP/Norm/NumLayers1/ScaleF1.3/BP/NCycles750/CE/tanh/CVTest15/CVImp1e-16/NotUseRegulator/Deuteron/Downstream"/>
    <Info name="Training events" value="66149"/>
    <Info name="TrainingTime" value="3.22860108e+03"/>
    <Info name="AnalysisType" value="Classification"/>
  </GeneralInfo>
  <Options>
    <Option name="NCycles" modified="Yes">750</Option>
    <Option name="HiddenLayers" modified="Yes">40</Option>
    <Option name="NeuronType" modified="Yes">tanh</Option>
    <Option name="RandomSeed" modified="No">1</Option>
    <Option name="EstimatorType" modified="Yes">CE</Option>
    <Option name="NeuronInputType" modified="No">sum</Option>
    <Option name="V" modified="Yes">True</Option>
    <Option name="VerbosityLevel" modified="No">Verbose</Option>
    <Option name="VarTransform" modified="Yes">Norm</Option>
    <Option name="H" modified="Yes">True</Option>
    <Option name="CreateMVAPdfs" modified="No">False</Option>
    <Option name="IgnoreNegWeightsInTraining" modified="No">False</Option>
    <Option name="TrainingMethod" modified="Yes">BP</Option>
    <Option name="LearningRate" modified="No">2.000000e-02</Option>
    <Option name="DecayRate" modified="No">1.000000e-02</Option>
    <Option name="TestRate" modified="No">10</Option>
    <Option name="EpochMonitoring" modified="Yes">True</Option>
    <Option name="Sampling" modified="No">1.000000e+00</Option>
    <Option name="SamplingEpoch" modified="No">1.000000e+00</Option>
    <Option name="SamplingImportance" modified="No">1.000000e+00</Option>
    <Option name="SamplingTraining" modified="No">True</Option>
    <Option name="SamplingTesting" modified="No">False</Option>
    <Option name="ResetStep" modified="No">50</Option>
    <Option name="Tau" modified="No">3.000000e+00</Option>
    <Option name="BPMode" modified="No">sequential</Option>
    <Option name="BatchSize" modified="No">-1</Option>
    <Option name="ConvergenceImprove" modified="Yes">1.000000e-16</Option>
    <Option name="ConvergenceTests" modified="Yes">15</Option>
    <Option name="UseRegulator" modified="Yes">False</Option>
    <Option name="UpdateLimit" modified="No">10000</Option>
    <Option name="CalculateErrors" modified="No">False</Option>
    <Option name="WeightRange" modified="No">1.000000e+00</Option>
  </Options>
  <Variables NVar="31">
    <Variable VarIndex="0" Expression="TrackP" Label="TrackP" Title="TrackP" Unit="" Internal="TrackP" Type="F" Min="1.19744995e+03" Max="8.57506438e+05"/>
    <Variable VarIndex="1" Expression="TrackPt" Label="TrackPt" Title="TrackPt" Unit="" Internal="TrackPt" Type="F" Min="8.46836758e+00" Max="5.64632578e+04"/>
    <Variable VarIndex="2" Expression="TrackChi2PerDof" Label="TrackChi2PerDof" Title="TrackChi2PerDof" Unit="" Internal="TrackChi2PerDof" Type="F" Min="8.86746719e-02" Max="3.99946141e+00"/>
    <Variable VarIndex="3" Expression="TrackNumDof" Label="TrackNumDof" Title="TrackNumDof" Unit="" Internal="TrackNumDof" Type="I" Min="6.00000000e+00" Max="3.00000000e+01"/>
    <Variable VarIndex="4" Expression="TrackGhostProbability" Label="TrackGhostProbability" Title="TrackGhostProbability" Unit="" Internal="TrackGhostProbability" Type="F" Min="1.18474396e-04" Max="3.99959058e-01"/>
    <Variable VarIndex="5" Expression="TrackFitTChi2" Label="TrackFitTChi2" Title="TrackFitTChi2" Unit="" Internal="TrackFitTChi2" Type="F" Min="7.49163032e-02" Max="5.48244629e+01"/>
    <Variable VarIndex="6" Expression="TrackFitTNDoF" Label="TrackFitTNDoF" Title="TrackFitTNDoF" Unit="" Internal="TrackFitTNDoF" Type="I" Min="2.00000000e+00" Max="2.60000000e+01"/>
    <Variable VarIndex="7" Expression="RichUsedR1Gas" Label="RichUsedR1Gas" Title="RichUsedR1Gas" Unit="" Internal="RichUsedR1Gas" Type="I" Min="0.00000000e+00" Max="1.00000000e+00"/>
    <Variable VarIndex="8" Expression="RichUsedR2Gas" Label="RichUsedR2Gas" Title="RichUsedR2Gas" Unit="" Internal="RichUsedR2Gas" Type="I" Min="0.00000000e+00" Max="1.00000000e+00"/>
    <Variable VarIndex="9" Expression="RichAbovePiThres" Label="RichAbovePiThres" Title="RichAbovePiThres" Unit="" Internal="RichAbovePiThres" Type="I" Min="0.00000000e+00" Max="1.00000000e+00"/>
    <Variable VarIndex="10" Expression="RichAboveKaThres" Label="RichAboveKaThres" Title="RichAboveKaThres" Unit="" Internal="RichAboveKaThres" Type="I" Min="0.00000000e+00" Max="1.00000000e+00"/>
    <Variable VarIndex="11" Expression="RichAbovePrThres" Label="RichAbovePrThres" Title="RichAbovePrThres" Unit="" Internal="RichAbovePrThres" Type="I" Min="0.00000000e+00" Max="1.00000000e+00"/>
    <Variable VarIndex="12" Expression="RichDLLe" Label="RichDLLe" Title="RichDLLe" Unit="" Internal="RichDLLe" Type="F" Min="-9.99000000e+02" Max="1.06343002e+02"/>
    <Variable VarIndex="13" Expression="RichDLLmu" Label="RichDLLmu" Title="RichDLLmu" Unit="" Internal="RichDLLmu" Type="F" Min="-9.99000000e+02" Max="9.70252991e+01"/>
    <Variable VarIndex="14" Expression="RichDLLk" Label="RichDLLk" Title="RichDLLk" Unit="" Internal="RichDLLk" Type="F" Min="-9.99000000e+02" Max="8.53712006e+01"/>
    <Variable VarIndex="15" Expression="RichDLLp" Label="RichDLLp" Title="RichDLLp" Unit="" Internal="RichDLLp" Type="F" Min="-9.99000000e+02" Max="8.63275986e+01"/>
    <Variable VarIndex="16" Expression="RichDLLd" Label="RichDLLd" Title="RichDLLd" Unit="" Internal="RichDLLd" Type="F" Min="-9.99000000e+02" Max="1.54309799e+02"/>
    <Variable VarIndex="17" Expression="RichDLLbt" Label="RichDLLbt" Title="RichDLLbt" Unit="" Internal="RichDLLbt" Type="F" Min="-9.99000000e+02" Max="7.06457977e+01"/>
    <Variable VarIndex="18" Expression="MuonBkgLL" Label="MuonBkgLL" Title="MuonBkgLL" Unit="" Internal="MuonBkgLL" Type="F" Min="-9.99000000e+02" Max="1.33999996e-02"/>
    <Variable VarIndex="19" Expression="MuonMuLL" Label="MuonMuLL" Title="MuonMuLL" Unit="" Internal="MuonMuLL" Type="F" Min="-9.99000000e+02" Max="0.00000000e+00"/>
    <Variable VarIndex="20" Expression="MuonIsMuon" Label="MuonIsMuon" Title="MuonIsMuon" Unit="" Internal="MuonIsMuon" Type="I" Min="0.00000000e+00" Max="1.00000000e+00"/>
    <Variable VarIndex="21" Expression="MuonNShared" Label="MuonNShared" Title="MuonNShared" Unit="" Internal="MuonNShared" Type="I" Min="0.00000000e+00" Max="2.50000000e+01"/>
    <Variable VarIndex="22" Expression="InAccMuon" Label="InAccMuon" Title="InAccMuon" Unit="" Internal="InAccMuon" Type="I" Min="0.00000000e+00" Max="1.00000000e+00"/>
    <Variable VarIndex="23" Expression="MuonIsLooseMuon" Label="MuonIsLooseMuon" Title="MuonIsLooseMuon" Unit="" Internal="MuonIsLooseMuon" Type="I" Min="0.00000000e+00" Max="1.00000000e+00"/>
    <Variable VarIndex="24" Expression="InAccEcal" Label="InAccEcal" Title="InAccEcal" Unit="" Internal="InAccEcal" Type="I" Min="0.00000000e+00" Max="1.00000000e+00"/>
    <Variable VarIndex="25" Expression="EcalPIDe" Label="EcalPIDe" Title="EcalPIDe" Unit="" Internal="EcalPIDe" Type="F" Min="-9.99000000e+02" Max="4.05479050e+00"/>
    <Variable VarIndex="26" Expression="EcalPIDmu" Label="EcalPIDmu" Title="EcalPIDmu" Unit="" Internal="EcalPIDmu" Type="F" Min="-9.99000000e+02" Max="2.64517307e+00"/>
    <Variable VarIndex="27" Expression="InAccHcal" Label="InAccHcal" Title="InAccHcal" Unit="" Internal="InAccHcal" Type="I" Min="0.00000000e+00" Max="1.00000000e+00"/>
    <Variable VarIndex="28" Expression="HcalPIDe" Label="HcalPIDe" Title="HcalPIDe" Unit="" Internal="HcalPIDe" Type="F" Min="-9.99000000e+02" Max="2.48637319e+00"/>
    <Variable VarIndex="29" Expression="HcalPIDmu" Label="HcalPIDmu" Title="HcalPIDmu" Unit="" Internal="HcalPIDmu" Type="F" Min="-9.99000000e+02" Max="2.61016369e+00"/>
    <Variable VarIndex="30" Expression="PrsPIDe" Label="PrsPIDe" Title="PrsPIDe" Unit="" Internal="PrsPIDe" Type="F" Min="-9.99000000e+02" Max="3.46313500e+00"/>
  </Variables>
  <Spectators NSpec="0"/>
  <Classes NClass="2">
    <Class Name="Signal" Index="0"/>
    <Class Name="Background" Index="1"/>
  </Classes>
  <Transformations NTransformations="1">
    <Transform Name="Normalize">
      <Selection>
        <Input NInputs="31">
          <Input Type="Variable" Label="TrackP" Expression="TrackP"/>
          <Input Type="Variable" Label="TrackPt" Expression="TrackPt"/>
          <Input Type="Variable" Label="TrackChi2PerDof" Expression="TrackChi2PerDof"/>
          <Input Type="Variable" Label="TrackNumDof" Expression="TrackNumDof"/>
          <Input Type="Variable" Label="TrackGhostProbability" Expression="TrackGhostProbability"/>
          <Input Type="Variable" Label="TrackFitTChi2" Expression="TrackFitTChi2"/>
          <Input Type="Variable" Label="TrackFitTNDoF" Expression="TrackFitTNDoF"/>
          <Input Type="Variable" Label="RichUsedR1Gas" Expression="RichUsedR1Gas"/>
          <Input Type="Variable" Label="RichUsedR2Gas" Expression="RichUsedR2Gas"/>
          <Input Type="Variable" Label="RichAbovePiThres" Expression="RichAbovePiThres"/>
          <Input Type="Variable" Label="RichAboveKaThres" Expression="RichAboveKaThres"/>
          <Input Type="Variable" Label="RichAbovePrThres" Expression="RichAbovePrThres"/>
          <Input Type="Variable" Label="RichDLLe" Expression="RichDLLe"/>
          <Input Type="Variable" Label="RichDLLmu" Expression="RichDLLmu"/>
          <Input Type="Variable" Label="RichDLLk" Expression="RichDLLk"/>
          <Input Type="Variable" Label="RichDLLp" Expression="RichDLLp"/>
          <Input Type="Variable" Label="RichDLLd" Expression="RichDLLd"/>
          <Input Type="Variable" Label="RichDLLbt" Expression="RichDLLbt"/>
          <Input Type="Variable" Label="MuonBkgLL" Expression="MuonBkgLL"/>
          <Input Type="Variable" Label="MuonMuLL" Expression="MuonMuLL"/>
          <Input Type="Variable" Label="MuonIsMuon" Expression="MuonIsMuon"/>
          <Input Type="Variable" Label="MuonNShared" Expression="MuonNShared"/>
          <Input Type="Variable" Label="InAccMuon" Expression="InAccMuon"/>
          <Input Type="Variable" Label="MuonIsLooseMuon" Expression="MuonIsLooseMuon"/>
          <Input Type="Variable" Label="InAccEcal" Expression="InAccEcal"/>
          <Input Type="Variable" Label="EcalPIDe" Expression="EcalPIDe"/>
          <Input Type="Variable" Label="EcalPIDmu" Expression="EcalPIDmu"/>
          <Input Type="Variable" Label="InAccHcal" Expression="InAccHcal"/>
          <Input Type="Variable" Label="HcalPIDe" Expression="HcalPIDe"/>
          <Input Type="Variable" Label="HcalPIDmu" Expression="HcalPIDmu"/>
          <Input Type="Variable" Label="PrsPIDe" Expression="PrsPIDe"/>
        </Input>
        <Output NOutputs="31">
          <Output Type="Variable" Label="TrackP" Expression="TrackP"/>
          <Output Type="Variable" Label="TrackPt" Expression="TrackPt"/>
          <Output Type="Variable" Label="TrackChi2PerDof" Expression="TrackChi2PerDof"/>
          <Output Type="Variable" Label="TrackNumDof" Expression="TrackNumDof"/>
          <Output Type="Variable" Label="TrackGhostProbability" Expression="TrackGhostProbability"/>
          <Output Type="Variable" Label="TrackFitTChi2" Expression="TrackFitTChi2"/>
          <Output Type="Variable" Label="TrackFitTNDoF" Expression="TrackFitTNDoF"/>
          <Output Type="Variable" Label="RichUsedR1Gas" Expression="RichUsedR1Gas"/>
          <Output Type="Variable" Label="RichUsedR2Gas" Expression="RichUsedR2Gas"/>
          <Output Type="Variable" Label="RichAbovePiThres" Expression="RichAbovePiThres"/>
          <Output Type="Variable" Label="RichAboveKaThres" Expression="RichAboveKaThres"/>
          <Output Type="Variable" Label="RichAbovePrThres" Expression="RichAbovePrThres"/>
          <Output Type="Variable" Label="RichDLLe" Expression="RichDLLe"/>
          <Output Type="Variable" Label="RichDLLmu" Expression="RichDLLmu"/>
          <Output Type="Variable" Label="RichDLLk" Expression="RichDLLk"/>
          <Output Type="Variable" Label="RichDLLp" Expression="RichDLLp"/>
          <Output Type="Variable" Label="RichDLLd" Expression="RichDLLd"/>
          <Output Type="Variable" Label="RichDLLbt" Expression="RichDLLbt"/>
          <Output Type="Variable" Label="MuonBkgLL" Expression="MuonBkgLL"/>
          <Output Type="Variable" Label="MuonMuLL" Expression="MuonMuLL"/>
          <Output Type="Variable" Label="MuonIsMuon" Expression="MuonIsMuon"/>
          <Output Type="Variable" Label="MuonNShared" Expression="MuonNShared"/>
          <Output Type="Variable" Label="InAccMuon" Expression="InAccMuon"/>
          <Output Type="Variable" Label="MuonIsLooseMuon" Expression="MuonIsLooseMuon"/>
          <Output Type="Variable" Label="InAccEcal" Expression="InAccEcal"/>
          <Output Type="Variable" Label="EcalPIDe" Expression="EcalPIDe"/>
          <Output Type="Variable" Label="EcalPIDmu" Expression="EcalPIDmu"/>
          <Output Type="Variable" Label="InAccHcal" Expression="InAccHcal"/>
          <Output Type="Variable" Label="HcalPIDe" Expression="HcalPIDe"/>
          <Output Type="Variable" Label="HcalPIDmu" Expression="HcalPIDmu"/>
          <Output Type="Variable" Label="PrsPIDe" Expression="PrsPIDe"/>
        </Output>
      </Selection>
      <Class ClassIndex="0">
        <Ranges>
          <Range Index="0" Min="1.7974000244140625e+03" Max="8.5750643750000000e+05"/>
          <Range Index="1" Min="4.4814655303955078e+01" Max="5.6463257812500000e+04"/>
          <Range Index="2" Min="1.2404808402061462e-01" Max="3.9975106716156006e+00"/>
          <Range Index="3" Min="6.0000000000000000e+00" Max="2.5000000000000000e+01"/>
          <Range Index="4" Min="1.1847439600387588e-04" Max="3.9945319294929504e-01"/>
          <Range Index="5" Min="1.5378421545028687e-01" Max="5.4824462890625000e+01"/>
          <Range Index="6" Min="2.0000000000000000e+00" Max="2.0000000000000000e+01"/>
          <Range Index="7" Min="0.0000000000000000e+00" Max="1.0000000000000000e+00"/>
          <Range Index="8" Min="0.0000000000000000e+00" Max="1.0000000000000000e+00"/>
          <Range Index="9" Min="0.0000000000000000e+00" Max="1.0000000000000000e+00"/>
          <Range Index="10" Min="0.0000000000000000e+00" Max="1.0000000000000000e+00"/>
          <Range Index="11" Min="0.0000000000000000e+00" Max="1.0000000000000000e+00"/>
          <Range Index="12" Min="-9.9900000000000000e+02" Max="3.8717800140380859e+01"/>
          <Range Index="13" Min="-9.9900000000000000e+02" Max="1.9655099868774414e+01"/>
          <Range Index="14" Min="-9.9900000000000000e+02" Max="6.1882099151611328e+01"/>
          <Range Index="15" Min="-9.9900000000000000e+02" Max="7.0645797729492188e+01"/>
          <Range Index="16" Min="-9.9900000000000000e+02" Max="1.5430979919433594e+02"/>
          <Range Index="17" Min="-9.9900000000000000e+02" Max="7.0645797729492188e+01"/>
          <Range Index="18" Min="-9.9900000000000000e+02" Max="4.6000001020729542e-03"/>
          <Range Index="19" Min="-9.9900000000000000e+02" Max="0.0000000000000000e+00"/>
          <Range Index="20" Min="0.0000000000000000e+00" Max="1.0000000000000000e+00"/>
          <Range Index="21" Min="0.0000000000000000e+00" Max="2.5000000000000000e+01"/>
          <Range Index="22" Min="0.0000000000000000e+00" Max="1.0000000000000000e+00"/>
          <Range Index="23" Min="0.0000000000000000e+00" Max="1.0000000000000000e+00"/>
          <Range Index="24" Min="0.0000000000000000e+00" Max="1.0000000000000000e+00"/>
          <Range Index="25" Min="-9.9900000000000000e+02" Max="4.0408878326416016e+00"/>
          <Range Index="26" Min="-9.9900000000000000e+02" Max="2.5060930252075195e+00"/>
          <Range Index="27" Min="0.0000000000000000e+00" Max="1.0000000000000000e+00"/>
          <Range Index="28" Min="-9.9900000000000000e+02" Max="2.4863731861114502e+00"/>
          <Range Index="29" Min="-9.9900000000000000e+02" Max="2.6101636886596680e+00"/>
          <Range Index="30" Min="-9.9900000000000000e+02" Max="3.4631350040435791e+00"/>
        </Ranges>
      </Class>
      <Class ClassIndex="1">
        <Ranges>
          <Range Index="0" Min="1.1974499511718750e+03" Max="6.8857775000000000e+05"/>
          <Range Index="1" Min="8.4683675765991211e+00" Max="1.8321019531250000e+04"/>
          <Range Index="2" Min="8.8674671947956085e-02" Max="3.9994614124298096e+00"/>
          <Range Index="3" Min="6.0000000000000000e+00" Max="3.0000000000000000e+01"/>
          <Range Index="4" Min="3.8658021367155015e-04" Max="3.9995905756950378e-01"/>
          <Range Index="5" Min="7.4916303157806396e-02" Max="5.1107719421386719e+01"/>
          <Range Index="6" Min="2.0000000000000000e+00" Max="2.6000000000000000e+01"/>
          <Range Index="7" Min="0.0000000000000000e+00" Max="1.0000000000000000e+00"/>
          <Range Index="8" Min="0.0000000000000000e+00" Max="1.0000000000000000e+00"/>
          <Range Index="9" Min="0.0000000000000000e+00" Max="1.0000000000000000e+00"/>
          <Range Index="10" Min="0.0000000000000000e+00" Max="1.0000000000000000e+00"/>
          <Range Index="11" Min="0.0000000000000000e+00" Max="1.0000000000000000e+00"/>
          <Range Index="12" Min="-9.9900000000000000e+02" Max="1.0634300231933594e+02"/>
          <Range Index="13" Min="-9.9900000000000000e+02" Max="9.7025299072265625e+01"/>
          <Range Index="14" Min="-9.9900000000000000e+02" Max="8.5371200561523438e+01"/>
          <Range Index="15" Min="-9.9900000000000000e+02" Max="8.6327598571777344e+01"/>
          <Range Index="16" Min="-9.9900000000000000e+02" Max="6.8927398681640625e+01"/>
          <Range Index="17" Min="-9.9900000000000000e+02" Max="6.8927398681640625e+01"/>
          <Range Index="18" Min="-9.9900000000000000e+02" Max="1.3399999588727951e-02"/>
          <Range Index="19" Min="-9.9900000000000000e+02" Max="0.0000000000000000e+00"/>
          <Range Index="20" Min="0.0000000000000000e+00" Max="1.0000000000000000e+00"/>
          <Range Index="21" Min="0.0000000000000000e+00" Max="2.0000000000000000e+01"/>
          <Range Index="22" Min="0.0000000000000000e+00" Max="1.0000000000000000e+00"/>
          <Range Index="23" Min="0.0000000000000000e+00" Max="1.0000000000000000e+00"/>
          <Range Index="24" Min="0.0000000000000000e+00" Max="1.0000000000000000e+00"/>
          <Range Index="25" Min="-9.9900000000000000e+02" Max="4.0547904968261719e+00"/>
          <Range Index="26" Min="-9.9900000000000000e+02" Max="2.6451730728149414e+00"/>
          <Range Index="27" Min="0.0000000000000000e+00" Max="1.0000000000000000e+00"/>
          <Range Index="28" Min="-9.9900000000000000e+02" Max="2.4863731861114502e+00"/>
          <Range Index="29" Min="-9.9900000000000000e+02" Max="2.6101636886596680e+00"/>
          <Range Index="30" Min="-9.9900000000000000e+02" Max="3.3360030651092529e+00"/>
        </Ranges>
      </Class>
      <Class ClassIndex="2">
        <Ranges>
          <Range Index="0" Min="1.1974499511718750e+03" Max="8.5750643750000000e+05"/>
          <Range Index="1" Min="8.4683675765991211e+00" Max="5.6463257812500000e+04"/>
          <Range Index="2" Min="8.8674671947956085e-02" Max="3.9994614124298096e+00"/>
          <Range Index="3" Min="6.0000000000000000e+00" Max="3.0000000000000000e+01"/>
          <Range Index="4" Min="1.1847439600387588e-04" Max="3.9995905756950378e-01"/>
          <Range Index="5" Min="7.4916303157806396e-02" Max="5.4824462890625000e+01"/>
          <Range Index="6" Min="2.0000000000000000e+00" Max="2.6000000000000000e+01"/>
          <Range Index="7" Min="0.0000000000000000e+00" Max="1.0000000000000000e+00"/>
          <Range Index="8" Min="0.0000000000000000e+00" Max="1.0000000000000000e+00"/>
          <Range Index="9" Min="0.0000000000000000e+00" Max="1.0000000000000000e+00"/>
          <Range Index="10" Min="0.0000000000000000e+00" Max="1.0000000000000000e+00"/>
          <Range Index="11" Min="0.0000000000000000e+00" Max="1.0000000000000000e+00"/>
          <Range Index="12" Min="-9.9900000000000000e+02" Max="1.0634300231933594e+02"/>
          <Range Index="13" Min="-9.9900000000000000e+02" Max="9.7025299072265625e+01"/>
          <Range Index="14" Min="-9.9900000000000000e+02" Max="8.5371200561523438e+01"/>
          <Range Index="15" Min="-9.9900000000000000e+02" Max="8.6327598571777344e+01"/>
          <Range Index="16" Min="-9.9900000000000000e+02" Max="1.5430979919433594e+02"/>
          <Range Index="17" Min="-9.9900000000000000e+02" Max="7.0645797729492188e+01"/>
          <Range Index="18" Min="-9.9900000000000000e+02" Max="1.3399999588727951e-02"/>
          <Range Index="19" Min="-9.9900000000000000e+02" Max="0.0000000000000000e+00"/>
          <Range Index="20" Min="0.0000000000000000e+00" Max="1.0000000000000000e+00"/>
          <Range Index="21" Min="0.0000000000000000e+00" Max="2.5000000000000000e+01"/>
          <Range Index="22" Min="0.0000000000000000e+00" Max="1.0000000000000000e+00"/>
          <Range Index="23" Min="0.0000000000000000e+00" Max="1.0000000000000000e+00"/>
          <Range Index="24" Min="0.0000000000000000e+00" Max="1.0000000000000000e+00"/>
          <Range Index="25" Min="-9.9900000000000000e+02" Max="4.0547904968261719e+00"/>
          <Range Index="26" Min="-9.9900000000000000e+02" Max="2.6451730728149414e+00"/>
          <Range Index="27" Min="0.0000000000000000e+00" Max="1.0000000000000000e+00"/>
          <Range Index="28" Min="-9.9900000000000000e+02" Max="2.4863731861114502e+00"/>
          <Range Index="29" Min="-9.9900000000000000e+02" Max="2.6101636886596680e+00"/>
          <Range Index="30" Min="-9.9900000000000000e+02" Max="3.4631350040435791e+00"/>
        </Ranges>
      </Class>
    </Transform>
  </Transformations>
  <MVAPdfs/>
  <Weights>
    <Layout NLayers="3">
      <Layer Index="0" NNeurons="32">
        <Neuron NSynapses="40">
          -8.1006320607696913e-01 8.4440306819049993e-01 9.9527037657741158e+00 1.8234072974322149e+00 -3.7810169007034178e+00 -2.5594129756030721e+00 -2.2296507009633260e+00 1.3140318324422333e+00 -2.4856995971372804e+00 -2.1517922500768547e+00 -1.9713636659110054e+00 -1.2991130809188107e+00 -6.4030443369308010e+00 -8.7760394385200069e-01 -1.1870670031966137e+00 1.5881442755253961e+00 5.0278861477363446e-01 1.2744659802322644e+00 1.8996025358628170e+00 4.2402699834610935e+00 2.2858266411032627e-01 1.6656349691829708e+00 2.1229714140058427e-02 1.1670582508788117e+00 -7.6605513924493041e-01 5.2766078514991377e-02 1.6952327233324873e+00 -2.0170374188453248e+00 -9.9474263532380558e-01 1.1508055499821488e+00 -1.4330318720482221e-01 2.2733489996512750e+00 -2.8015677862249005e-01 1.6569579190964807e+00 -8.5048926328263233e-02 -1.5355933057618795e-01 -1.8451149929220734e-01 -3.4817771301370048e+00 -2.7553250803901617e+00 9.0471053760168274e-01 
        </Neuron>
        <Neuron NSynapses="40">
          1.0004410153969845e+00 4.6755797817460404e-01 1.2442586109607182e+01 1.5552028266364937e+00 -1.7283624124053325e+00 -2.3080762836994491e+00 -5.9616851414479788e-01 -2.1506015826221621e+00 -2.2498044218602811e+00 -3.4268917516140962e-01 1.5930553193929513e+00 4.2052845933069155e-01 -1.2370263445186232e+01 1.2695652443576055e+00 -2.1850909019606513e+00 6.4276474051556598e-01 -8.0637742116858668e-01 -3.6213031118914647e+00 2.4501555297275583e+00 6.7550793086962480e-01 -2.6304818485950965e+00 1.6981093457819139e+01 -1.3050034224486911e+00 2.8607230658327176e+00 1.9456752878172141e+00 -1.3095958977316857e+00 -1.7525682116573031e+00 -3.4744536427484181e+00 3.2156450683270990e+00 8.0271558725236281e-01 -2.1872337906662076e+00 2.8476179328453810e-02 8.2630352639672677e-01 3.0226673537483757e+00 1.5781555945905423e+00 -2.5957488510578015e-02 -1.8866412930262888e+00 -1.1498206388975488e+01 -2.1669418075750685e-01 4.6886627676159354e-01 
        </Neuron>
        <Neuron NSynapses="40">
          1.5875319693933276e+00 3.6014985551416889e-01 -9.6568899516374762e-01 -2.1083453352174399e+00 -2.6226146956923135e+00 2.5441806373098678e-02 1.4091863024951188e+00 -7.3539450924353322e-02 -2.5851145211381277e+00 -1.1145610566403403e+00 -3.4628926718656428e-01 1.3049368055058408e+00 -5.6788875020756767e-02 -1.5302678710119584e+00 -6.2195615564268147e-01 1.5982360605760078e+00 -2.7119513590954942e+00 -1.4055101961266203e+00 -2.1000630383794414e+00 1.4548601424409804e+00 -2.0367733966966135e+00 -3.9234129906197755e-02 2.4131705267631105e+00 2.6585430462954052e+00 -1.0436928555323601e+00 1.8776807036998080e+00 -2.1559859325760983e-01 -6.5607625119630253e-01 1.7248832861789516e+00 -5.0594886055508548e-01 -2.5688034437534939e+00 1.4788341144624442e+00 -5.1472072467981245e-01 -4.4918859716068554e-01 6.9179492599606152e-01 1.3970481365822445e+00 5.8413079647167154e-01 -5.0545889782196640e-01 1.2892890030589341e+00 -1.3382868020503158e+00 
        </Neuron>
        <Neuron NSynapses="40">
          -1.1437620286724690e+00 3.1501760428396675e-01 6.1066301627276676e-01 2.2281808260510902e+00 1.8552661640858841e+00 -2.0848764762180655e-01 4.2450537760103618e-01 -5.2031400620716561e-01 -1.9768102341282126e+00 6.7260978933305859e-01 5.4912389024718866e-01 -2.1146000214530614e+00 1.1805676192520222e+00 -1.7563288353872097e+00 6.6340336782636611e-01 1.8402645408527742e+00 2.3031013055218894e+00 -2.2032845568051829e+00 -1.6585999735437874e-02 1.0613535778808303e+00 7.1488772752201779e-02 -6.2575880377483117e-01 -1.7779680374474822e+00 -1.3738980241804386e+00 -1.7739624946983898e+00 2.4187608289123088e+00 -7.8235203609909598e-01 -5.1927837048384651e-01 -1.2891806716308070e+00 -5.7785192310371725e-01 -1.4071491527011599e+00 -2.2619476091872615e-01 3.0437835560372175e+00 -6.9160365119121192e-01 -9.7290291486223035e-01 1.4904538706306878e+00 1.9967976444830482e-01 6.6636759238756660e-01 1.6573505602417624e+00 -1.3951206978253141e+00 
        </Neuron>
        <Neuron NSynapses="40">
          1.3095036854933499e+00 2.0133116332447996e+00 9.3987993281524840e-01 2.6997165302610426e-01 1.7809028479453677e+00 2.8015298705829744e-01 -3.3038512491127880e-01 3.0920643769696459e+00 -1.9398003607630894e+00 5.6877876472951783e-01 1.4431400538914616e+00 3.7398963115464562e-01 4.3296744012481070e-01 1.5279708785172030e+00 1.5428367709880866e+00 -2.5110564630255983e+00 8.5321399248706353e-01 -1.3848837344856527e-01 4.1391365609576553e-01 -1.4011753743461908e+00 -1.6263124119540913e+00 -4.9440919510105791e-02 2.0162087982532704e+00 -2.6991380206959534e+00 1.3845150358234768e+00 8.2161161196947399e-02 -5.1986859698957888e-01 1.6532957033543945e+00 -6.2597859074861784e-01 -2.5543480717931302e+00 -3.4208568679108318e+00 6.5738883531079517e-01 -2.3149169712714506e+00 1.7202136530097607e+00 6.4041373151098924e-01 -5.6577423258874737e-01 -2.7069955851052967e+00 1.5698985565448202e+00 4.3529979962136950e-02 -1.2002687294388037e+00 
        </Neuron>
        <Neuron NSynapses="40">
          -1.5764417347724662e+00 -1.9405362613079882e+00 8.0680556980979123e-01 -3.9074513041867891e+00 2.3178264244531119e+00 1.2532174012813782e+00 -1.1530393348033763e-01 -1.2669251107027195e+00 7.0073202082145669e-01 5.6731077523372131e-01 5.4392666305483628e-01 -8.2812343545482403e-01 -2.1408799920798542e+00 -8.1635838614614431e-01 3.0461857109804251e+00 2.1770575553233553e+00 2.6277883014114751e+00 1.6759370241257543e+00 1.9177287593816248e+00 -1.9296937493715551e+00 -2.3698465495782974e+00 5.5095086799782889e-01 -1.1133673048067387e+00 2.2155259439960613e+00 1.2076674219965995e+00 -2.1778564807339089e+00 1.5218181106810527e+00 4.4212553293758297e-02 -1.7035190092142878e+00 -1.0003764511768327e+00 1.0008443677873118e+00 1.1104954027064342e+00 1.5547408517054091e+00 1.9750371252744356e-01 2.4024292198389468e+00 -1.4935437955524853e+00 1.2259816489826825e+00 -1.6919611591645331e-01 -6.4528130703927378e-01 -1.4110933681006357e+00 
        </Neuron>
        <Neuron NSynapses="40">
          -1.6142273114712045e+00 -4.4526421075772582e-01 -1.2615169487164837e+00 -1.5121594025233871e+00 -4.1374489507205453e-01 -6.6834186400817652e-01 -4.8921269768694564e-01 -1.9875102597449268e+00 1.6912465078011931e+00 -1.2220025717959269e+00 4.9041771018858948e-01 -1.3045594858007150e+00 1.4203924408157158e+00 1.4558701073222406e+00 1.6521259310876679e+00 -6.7986719256015027e-01 -1.3608864205345652e+00 -1.5948406046904640e+00 -1.1534303695534105e+00 -1.3920768193338604e+00 -1.1138576795507689e+00 1.0600997174424028e-01 1.7969172416816608e+00 -8.0890000229329040e-01 -2.4141211763943243e-01 1.0139898153045253e+00 -2.6019751647405127e+00 4.9331146553939681e-01 -1.6757127993490145e-01 -1.7290070828847963e+00 -6.3866890697667067e-01 -3.3152821856225428e-01 2.2475509940140430e+00 3.7325954354696822e-01 -8.0581663038663265e-01 4.8727304858232867e-01 6.8640237093461498e-01 -2.4574794224502844e-02 1.3510058906540230e+00 -4.4766123671535357e-01 
        </Neuron>
        <Neuron NSynapses="40">
          4.4524033864321688e-01 6.9846827912207776e-01 6.5310429568145922e-01 -5.4534633560600676e-01 -1.8383644619580128e+00 -1.2874659772578545e+00 -1.0285361957478225e+00 2.6500774748475986e+00 -2.1126623833197207e+00 1.3254781633108150e+00 -1.2321469532926199e+00 8.1165709083802906e-01 8.8571627246571705e-01 7.8388525020030231e-01 1.2424976767141365e+00 -2.6814221815848793e-01 7.6541664123921471e-01 3.0137993386307721e-01 -1.6926884932699331e+00 2.2788313300147572e-01 -8.7450113873763369e-01 -5.8053597044012162e-01 1.4237637425140610e+00 -5.2876542596703335e-01 -9.9263210512722744e-01 -1.1418818031283873e+00 -3.9516151058668819e-01 -2.1281332266572206e+00 -4.0227085167722976e-01 -1.0699535761792420e+00 6.1442061446326357e-01 -2.5533456659238971e+00 -9.4970690417778658e-01 1.7325910322402160e+00 4.2119559826919278e-01 1.0922015991617150e-01 2.3255675911426383e+00 5.1442599988835637e-02 1.9296488237306824e+00 1.4993161674743105e+00 
        </Neuron>
        <Neuron NSynapses="40">
          -1.6965471951866162e+00 -8.3478684648651447e-01 6.9989265645591625e-01 -1.2016713997224950e+00 1.0741444751959635e-01 2.6674699484505577e+00 1.6798762795735602e+00 6.8339323349641068e-01 -2.1715596485148221e+00 1.1763100743100803e+00 -1.6169322611935619e+00 -1.2295772013107041e-02 1.1484442073610206e+00 -1.3331598821100117e+00 1.4048545162021124e+00 1.4288562636358046e+00 1.3257214138371922e+00 3.5921135701137169e-01 -1.1824222665860527e-01 3.8896999006105254e-01 -3.4217502604888789e-01 3.7434707755525204e-01 2.3712351319265403e+00 -1.6908009087193199e+00 5.7953919234819884e-01 -7.5321633848127501e-01 -2.4901334191422686e-01 -5.2309156348311188e-02 2.4697689168900744e-01 -8.1909432598475129e-01 1.7886394384983104e+00 2.0720227188975513e+00 -4.9571919113567908e-01 -1.3341915461414708e-01 -1.1937687856821837e+00 -1.0639863916062136e+00 -1.3465010021820709e+00 -3.0109275474497110e-02 -2.8993029572267115e-01 -6.5079525360292079e-01 
        </Neuron>
        <Neuron NSynapses="40">
          6.8727729034949758e-01 -1.2517248199039555e+00 -6.8463977281859769e+00 -7.3932043474217635e-01 8.3804191621953605e-01 -8.6451847675644711e-01 -2.0301022795112815e+00 -8.5659542519941956e-01 8.2460501987194415e-02 -1.4786053625026607e+00 1.0291683600724550e+00 -2.3443549183697043e+00 -2.8263915598537070e+00 1.5401420399864871e+00 2.0671327519858842e+00 -4.6225959926926441e-01 8.0833778030148840e-01 1.6576294162225294e+00 2.1308844878684914e+00 5.3689892432862263e-01 -8.1291870276539402e-01 -8.2289516510692229e-01 -1.6432582304035188e+00 1.2872514495435226e+00 3.6374837176536789e-01 -3.6662410374353777e-01 -6.5796859680623865e-01 6.7931339165274685e-01 3.2093397122088732e+00 -5.6661844426985886e-01 4.3989740132064870e-01 7.3923378186576938e-01 -2.1686093535025730e+00 -1.3675738240666280e+00 -8.1757407705750507e-01 1.6361560635666441e+00 -3.1390669478676225e-01 1.7746370930274378e+00 2.0460703255681318e+00 -2.9196914028320903e-01 
        </Neuron>
        <Neuron NSynapses="40">
          7.8369396907275723e-01 2.1389244677526049e+00 -2.7008190044992008e-02 -1.1343759568824388e+00 2.0439216892431555e+00 -2.3653506509471480e+00 9.9302256355203378e-01 2.7270613010631606e+00 -1.0721170330162821e+00 -9.9881953411273672e-01 1.9194866749473419e-01 -1.6917340980834987e+00 2.9911704035126613e-01 -1.5721020101734291e+00 9.4847803967141975e-01 2.5612830940881481e-01 2.0282912342125385e+00 8.5069668336511517e-01 2.2672369399436683e+00 5.0954318694132450e-01 -8.4466784914724491e-01 -2.6665141847737056e-01 1.5677144382380801e+00 -2.1304300194481836e+00 -5.3613301043371908e-01 -3.2813170824183363e-01 -3.3038239564909535e+00 -2.2089134847003318e+00 -4.1749739694621901e-01 4.5997544925729700e-01 4.4654078347904191e-01 -2.9470325409459952e+00 -3.3313271554245540e+00 1.3457606139939640e-01 2.8239112537627253e+00 2.2912364623296995e+00 3.7674568342666481e-01 -5.9061133531794631e-02 -2.2621378807235448e+00 -1.3962389022305799e-01 
        </Neuron>
        <Neuron NSynapses="40">
          -2.7235966347243870e+00 -2.3213767719036449e+00 -6.3935457851846822e-01 6.3124677877647958e-02 -1.0832164289867137e+00 1.4814579605040705e+00 9.7161152347642621e-01 -4.8365203758917022e-02 2.9385157587725624e-01 1.2484742909360668e-02 2.1866766487980254e+00 -5.2126233022253177e-01 -2.0675643259541535e-02 2.4307920976072657e+00 5.1122982451618115e-01 -1.5887687490140794e+00 1.5118587175631144e+00 -1.2262396758622534e+00 4.7646285420912987e-01 1.6965296212772805e+00 -1.0560350951082911e+00 -6.0240875854668907e-01 4.2511319336859288e-01 -1.2229594429106359e+00 2.1481286926346518e-01 2.2998360018796882e-01 -2.4405004999592324e+00 -1.7835173941724820e+00 1.2976541790220877e+00 1.5600995373374449e+00 4.5181844345394395e-01 5.5647012558737641e-01 -2.4598201466633380e+00 1.2273612497627977e+00 1.1365610000586543e+00 -1.7848671221087975e+00 -1.1527768001032852e+00 -7.2986133430467603e-01 2.0548482772586825e+00 1.2082742467274292e+00 
        </Neuron>
        <Neuron NSynapses="40">
          -4.5856066446773697e-01 -8.4950648672589646e-01 1.6162485281401799e+00 5.0382364113296815e-02 4.8149939486699911e-01 4.4913514444705038e-01 -1.8339416354703335e+00 -1.0210418391869347e+00 1.5780558524009671e+00 4.9318813314825771e-01 3.7815154872074241e-01 -1.7304934790642430e+00 -2.9123535279891302e+00 -1.9691922654203788e+00 -4.2137476917851968e-01 -1.7287726136441131e+00 1.2054603708055744e+00 -6.9535633741844616e-01 2.1070850999456114e+00 4.9853434892788795e-01 -2.0313970451017647e+00 2.5429372002670386e-01 2.2735426715394804e+00 5.8254131954881849e-01 -3.5323171005654525e-01 -9.4988359262068744e-01 2.0668183716924053e+00 -1.7492035815890721e+00 8.0009397094816903e-01 -1.6337206327847906e+00 1.9651151233404136e+00 -1.3024167784620551e+00 9.6147106348833078e-01 -4.5929715403123352e-03 6.6181453786699429e-01 -4.9049756894280677e-01 -3.3386186189167533e-01 4.1265741449034565e-01 4.3346492418659444e-01 1.0116410548537347e+00 
        </Neuron>
        <Neuron NSynapses="40">
          1.3276551475836993e+00 -1.1367795252137201e+00 -2.0332409502850703e+00 -2.6307472257639812e+00 1.2764228384029033e+00 1.5179949823270098e+00 8.8840112863538268e-01 1.5948553325470443e+00 2.0767948528530416e+00 -1.6820334747990144e+00 -7.4204213300294752e-01 -7.6047672168005853e-01 2.8819527734785749e-01 -2.2254876334436971e-01 -2.3596819242179193e-01 -8.4089819442969282e-01 -1.9474680525057533e-01 -8.7788974773679140e-01 -3.3290165846621977e-01 -2.1116566452042242e+00 -2.1033011136431307e-01 -4.8362079024019072e-01 -2.7998232304991061e-01 -1.6182270043825127e+00 6.4323858113410404e-01 6.7845004156806399e-01 5.8536288599885100e-01 -1.5484566342381818e+00 1.8937620493253569e+00 -7.7859311883659366e-01 1.7658931482508509e+00 5.9557916638407216e-01 -6.7420965316119907e-01 -7.9419004738959720e-01 -4.9847453367283995e-02 -1.8033281760893749e+00 -4.9973617217364991e-01 -5.7031032771542367e-01 1.3657218702905423e+00 -1.6843310418407149e+00 
        </Neuron>
        <Neuron NSynapses="40">
          1.6935954541213809e+00 1.3292578496027370e+00 1.2073947107579514e+01 1.1288675786297142e+00 8.6996468134947913e-01 -2.3163735664206603e-01 -1.2937349156459286e+00 -2.7291992563365750e+00 -2.5885561913264894e+00 -1.1061925711140865e+00 1.3114606354935909e+00 8.1257595641018421e-02 -1.9026147482777005e+00 1.3452574533914232e+00 8.2894756317189422e-01 -1.0134915999751084e+00 8.6716529676762699e-01 -1.3367639585685065e+00 1.1866121181976925e+00 -1.3342155875757604e+00 1.5023774727702568e-01 -1.2056203487193213e+00 1.4010486156140656e+00 -1.5630760041079055e+00 5.5015642152199729e-01 -2.5561687166326079e+00 -1.8203546016921721e-01 1.3816394547787696e+00 -2.7315845113778164e-01 7.9812947775321796e-01 -1.0706901441389582e+00 1.4596927592258793e+00 -8.0150851899231379e-01 1.8109002698974408e+00 -1.3584481044837724e+00 -7.0667829110790870e-01 2.5432239144919486e+00 -7.4686833235658865e+00 -1.3228337446182454e+00 -7.3524927077571756e-01 
        </Neuron>
        <Neuron NSynapses="40">
          1.4990977705560635e+00 9.5601937332106157e-01 1.3757986623204932e+01 -1.7068528806942760e+00 8.9673229950241506e-01 2.8741705951683444e-01 1.9106846131818904e+00 -2.0243742105274078e+00 -3.5685742167150183e+00 1.2940695794557019e-01 -1.9299719572781115e-01 1.5018104060895392e+00 -8.7885152843575665e-01 -1.5323263561081737e-01 -1.0702921905855001e+00 1.9295144213688851e+00 9.5656050069138432e-01 1.6823127688105903e+00 -2.5487825393190886e+00 -4.0530413061033235e+00 1.7876977119841413e+00 -3.4378194367727803e+00 1.9359940851228505e+00 3.0267466706185592e-01 -6.6398698670872691e-01 -2.2803257727523656e+00 -2.8681380904229630e+00 -1.6577081168332932e+00 -3.8685567516680458e-01 5.5314545228394379e-02 4.7788793036772154e-01 -1.0474689421512193e-01 6.1561576242905636e-01 -2.6898817310190895e+00 -8.3477159620662000e-01 4.4115990472807332e-01 -2.5858809414553003e+00 -5.2569970155623587e+00 1.2966578201501824e+00 -1.7544782073736074e+00 
        </Neuron>
        <Neuron NSynapses="40">
          -2.5889198626372156e-01 -1.8359981770559866e+00 9.0441065956040916e+00 4.2282374185718691e-01 -1.1990927436350549e+00 -1.2556830574571562e+00 -3.1443462022857052e+00 5.7092718133852660e-01 -2.4644715737794058e+00 2.1523817492609551e-01 -1.0356566419523139e-01 -1.5852878767779928e+00 -8.2423808553734457e+00 -1.0739994017177017e+00 -1.1272951843336189e-01 1.7814856390781517e+00 7.1031075680293532e-01 -1.7027715655924014e+00 8.3851289622503256e-01 2.9423131159067641e+00 -2.1761389329556611e+00 1.5648382749713837e+01 1.2433166105394797e+00 -9.5412313578369246e-01 -9.3038240493272151e-01 -3.3464353608686448e+00 -3.6965432754473442e+00 3.3183358757523069e+00 2.0818521298281953e+00 1.2585142713811630e+00 -1.5567598405436911e+00 3.9004457615332566e-01 -9.4155312925052392e-01 9.0967253424723094e-01 1.6818894825947908e+00 -1.0625203695684085e+00 2.2897117486345855e+00 -6.8456026386872528e+00 -6.2155151338273693e-02 -1.4588136075432272e+00 
        </Neuron>
        <Neuron NSynapses="40">
          1.5392314394461974e+00 8.4149137271665966e-02 1.5743848606438229e+01 -1.1987947322865395e+00 1.3316871377451451e+00 -1.4962775047583685e-01 -3.4837563562230639e-02 -1.7680370351811330e+00 -4.4979697439783513e+00 -2.7191959092956215e+00 5.6312255512751042e-01 4.7530763608220017e-01 -7.3983960142748844e+00 1.2207526425704263e+00 -3.6299910827964116e-01 5.4358021577037385e-01 1.7127509586104792e+00 2.0668928275093190e-01 -1.3046835942251194e+00 3.6599270734118221e+00 4.5628237242890013e-01 1.4538426483821095e+01 1.2231862055632083e+00 -3.5302880170642731e-01 -8.1195142059018666e-01 -2.4706610119869015e+00 -5.0635079248632335e+00 3.8048192021869215e-01 1.4720796907829021e+00 1.2303503429713323e+00 -1.8612188510206021e-01 2.2680346046576454e+00 8.6984732580375723e-01 2.0193991592332443e+00 1.0547920686729455e-01 1.0553087004040471e+00 2.1885004389424370e+00 -9.4305661459927510e+00 1.8039215626178462e+00 3.8378517118650596e-01 
        </Neuron>
        <Neuron NSynapses="40">
          -5.5322341339723313e-01 1.9548615157183764e+00 -1.6160550943966581e+00 -2.7769482675092350e-01 1.5054560794612555e+00 2.3044890807752788e-01 -2.1431142732180039e-01 -4.2083032725141806e-01 1.7084771175675211e+00 1.4211130760132364e+00 5.6667965352296501e-01 -4.1586535822190146e-01 4.3470308606152191e-01 1.8921902016727139e+00 9.7556505168845897e-01 4.3641400717661599e-01 -3.6674697944776413e-01 1.6579852547330551e+00 -1.9340265348476140e+00 -4.4586708142167136e-01 -1.4761670903581812e+00 1.3661339177296763e+00 -1.9495128315295134e+00 4.0383295494898341e-01 -2.1543789174448582e+00 2.0274330166446791e-01 -5.7032141642294243e-01 1.3756510426349311e+00 -1.7452725465652703e+00 -1.4221932129986625e+00 -5.4176472119717156e-01 8.9829506954528748e-01 2.1333481285796836e+00 7.1839689489499969e-01 1.0018196765707910e+00 3.5226544362641610e-01 4.3979966329579101e-01 -2.2300666366904856e-01 -1.1177638622858874e+00 1.4888527691320279e+00 
        </Neuron>
        <Neuron NSynapses="40">
          9.9460253963005209e-03 3.8208868548589781e-01 1.3359850432060713e-01 -6.3642403189145103e-01 1.8625364116704497e+00 -8.4235330773012925e-03 -1.5658523563154756e+00 -9.5392275840795904e-01 -1.1747674061952875e+00 -1.5399367791092671e+00 -9.3092184891253937e-01 1.3607211315270271e+00 -4.8936637568789837e-01 1.6018494746295568e+00 6.1805412894308998e-01 -1.4088115930255232e+00 -2.2851035481018060e+00 1.9427780598806790e+00 -4.4160270637862048e-01 -4.0650062910280560e-01 -2.0368640636108375e+00 6.1703622743385478e-01 1.1403194568572055e+00 -5.4427513552662321e-01 -1.5978249815834527e+00 -1.5039182721474281e-01 -3.4328817335089159e+00 -1.4789582818000571e+00 5.0649236745849158e-01 -2.3241959215938066e+00 1.3677503112893130e+00 -1.3578259689340355e+00 2.0883711598280369e-01 -4.8498947103207862e-01 1.2427463255299327e+00 1.5831364390049159e+00 -2.9276872918578345e-01 1.5067476554169092e+00 2.9569162038835145e-01 -9.9746310060364951e-01 
        </Neuron>
        <Neuron NSynapses="40">
          1.2503626533512182e+00 2.7344395262923715e+00 6.4130734241921683e+00 -8.5274939115047121e-01 -1.9664686341660522e+00 1.7047040533177665e-02 8.3167832981044576e-01 -2.0447233625509615e+00 9.2524387516562823e-01 -3.8405402852351539e-01 1.8681842501959551e+00 -1.8160636762032960e+00 -1.5264696100079694e-01 -3.9947891413280950e-01 -1.6371403838394625e+00 1.1624279551950354e+00 -2.1064964394669916e+00 2.0355467127150789e-02 -7.4980894830973643e-01 -1.2964939295388274e+00 -2.4099775427989840e+00 3.6841235755115626e-01 2.9928565868012336e-01 -2.0922400340938192e+00 1.1489618699148312e+00 -5.3153679891944561e-01 -4.2457593827786505e-01 -2.1276716707376575e-01 1.2337125087246947e+00 8.6756257059127673e-01 -4.9840810683544756e-01 1.3278542847394865e+00 2.4080080233119689e+00 -2.3517489714439570e+00 1.4406655162756943e-01 2.1078990494259582e+00 1.5353245845624248e+00 -2.5477431798841910e-01 4.3713880031727284e-02 -2.1946369920709698e+00 
        </Neuron>
        <Neuron NSynapses="40">
          -1.0430716053695166e+00 2.9384387044637998e+00 1.6042445890757071e+00 3.8920107219853739e-01 -2.7119718794918248e+00 -3.7176979509263264e-01 -1.4431709024898298e+00 3.3136143555026165e-01 -4.5668476027744165e-01 -4.8900151931851286e-02 -1.5521635156485110e+00 -1.0137292495754886e+00 -9.4891575897396763e-01 1.8079721370136816e+00 2.2211560240561248e+00 2.3926123385976221e+00 -1.3857467136734716e+00 -4.6349019291854260e-01 6.9418112983764424e-01 1.2418281282518233e+00 -3.1335609756277150e-01 2.9105015080741020e-01 -7.6947066258815089e-01 1.6921958620105640e-01 -1.8923425575071340e-01 6.0477788788299547e-01 -8.9658313069261220e-01 -1.7896243624512977e+00 1.4930394714103146e+00 2.7193215270510609e+00 -7.6340946526482922e-01 1.6679359577748327e+00 2.8383523149003764e+00 8.8031775807917290e-01 -1.5448828646803738e+00 4.3262810990105327e-01 8.9103990337033301e-01 -8.1569901375049703e-01 -2.1405211617613888e+00 6.4575807760135273e-01 
        </Neuron>
        <Neuron NSynapses="40">
          9.8777242327291692e-01 9.4799620071111579e-01 1.2350523405939763e-01 -5.0270679168918930e-01 -6.2305485578289743e-01 -5.4201670448309924e-01 -1.2242603396467360e+00 1.1972277925913941e-01 5.6998495246584158e-01 1.3086427683676529e+00 9.8159354532506360e-01 1.2007184324299691e+00 5.9385953710287348e-02 4.9892891706106263e-01 1.1353198850847561e+00 1.6637718358703861e+00 -1.9505477744770237e+00 -1.8287934204877065e+00 1.7391694449773714e-02 -1.3571782575029057e+00 -1.1419427383789569e+00 -1.6206832363534213e-01 -1.7995822445147111e-01 1.2135475210714419e+00 2.5225875811670382e+00 6.2788817654088713e-01 1.7948379162941694e+00 8.0699847244260925e-01 3.9019209341468131e-01 6.9819608379843967e-01 1.1163154331363816e+00 3.7952233357137632e-01 9.4951582807105606e-01 3.7471744643368696e+00 -5.8040117322572060e-01 1.7328886456022041e+00 -9.3819484585913071e-01 -3.5797483399101104e-01 -9.6576534946282278e-01 5.5080254779469995e-01 
        </Neuron>
        <Neuron NSynapses="40">
          -1.2782955178568620e+00 1.7601797010109659e+00 1.0543977143120875e+00 1.7820623628663104e+00 -1.5084501782715318e+00 1.4494850368238479e+00 -1.3232059011021164e+00 5.3876360495023723e-01 1.1235066318265647e+00 -9.7601447659232732e-02 -7.3715138950823456e-01 -9.8356502448814428e-02 4.7121196331245468e-01 1.8819897857927492e+00 -1.4232922946385887e-01 9.8291664928289646e-01 -4.0125425256810826e-01 4.3120795636354320e-01 -1.2181810199924821e+00 8.1851101456461617e-01 7.6959156418084207e-01 -1.8400079715033257e+00 -5.8675271520029371e-01 1.9202550555506785e+00 -1.0488685490617558e+00 -1.9270952612520136e+00 -1.4887602366289305e+00 -1.3838047218163876e+00 1.8882637487123455e+00 6.9051878890807050e-01 -1.8836505360187124e+00 -8.0532149619332671e-01 1.5535716594714253e+00 -5.6069845471833824e-01 1.8131667030948293e+00 1.0318250428529407e+00 -2.2349416646070193e+00 -1.4964765970945157e+00 2.2100413545156339e-01 -6.5234995038156096e-01 
        </Neuron>
        <Neuron NSynapses="40">
          -6.7228579515661291e-01 6.1987053684446503e-01 1.2752987999785104e+00 1.6546105747061801e+00 4.4761453225400083e-01 -5.9634998787758886e-01 9.9611033026237128e-01 -4.0370709194368587e-01 -1.1150428210547099e+00 1.3140282682923932e+00 4.5514730972189238e-01 2.6317142560541995e-01 -6.4369520143802927e-01 -7.1293765228414230e-01 -2.4941313809392902e+00 9.9030937625162130e-01 2.8997821913792560e-01 -5.0019143072175642e-01 -8.7577674847750908e-01 1.1588358111878339e+00 5.1130896902596146e-01 1.0783797301235634e+00 2.1254082777063648e+00 2.0580402076596846e-01 -8.0935317332459700e-01 -1.4694490497393293e+00 -6.4469162686121140e-01 2.0151354343947250e+00 -2.1846084025372181e-01 -1.9667334851972069e+00 2.0876468676487905e+00 9.5226145526723760e-01 1.8925698797171360e+00 2.6003958620345979e-01 1.2211024948588438e+00 2.7799465907028392e-01 1.4422103097108248e+00 1.7798217884202090e+00 -1.3847445920917762e+00 -1.1964690721378834e+00 
        </Neuron>
        <Neuron NSynapses="40">
          -1.6314143101233947e+00 -1.2998289101341136e+00 -1.4430215154800241e+00 -5.4470624043698357e-01 -5.3239504182722308e-01 -1.9976946073516104e+00 -1.0467113716664809e+00 1.9919468997534129e+00 -5.0642443698088457e-01 -1.7984581490361495e+00 -4.0182860265846443e-01 2.0820365209894232e+00 1.3318268604554915e+00 -1.3789490315948594e+00 -1.8258800413130900e+00 -8.3177905856075784e-01 7.9049427771019942e-01 -7.0026966666175505e-01 -1.1818190339015628e+00 1.2673890557891971e+00 7.2282508265998235e-01 -1.8395648741159965e-01 -1.4849880965152076e-01 -3.3921191106347170e-01 -2.2522839798209198e+00 -1.0150197014721389e+00 -7.8740851562884784e-01 -1.6290648365426694e+00 9.4721754872481845e-01 -1.6635417063420310e+00 3.4538947967423583e-01 5.0801921419938312e-01 2.2271339424488645e-01 -1.3817659547462098e+00 -1.4763474888520591e+00 1.0510005325783704e+00 1.9146721390519456e-02 2.9017519690976226e+00 1.6668587308758647e+00 -1.2749815146467827e+00 
        </Neuron>
        <Neuron NSynapses="40">
          1.3148733115103435e+00 -1.0389873404289176e+00 -1.0109123890701507e-01 -1.2488716235602912e+00 2.1142384987745220e+00 -1.4546021583009139e+00 1.9635584824293364e+00 1.7236609627834949e+00 -3.6764729897710907e-01 3.6519716885198189e-01 -1.9355348095508966e+00 1.1338469365373971e+00 -6.8636700063102507e-01 -1.2773655543781646e+00 -2.1785026437640735e+00 -2.3110350484827764e+00 -2.5389699987250092e-01 2.2542348842684476e+00 -7.1172688881429258e-01 -9.3640311942774623e-01 2.4537298338654261e+00 -1.0629436024863559e+00 -8.6885927084040315e-01 1.8694334318202088e+00 1.3989299342044808e+00 -4.5382820707084681e-01 1.5296148767165532e+00 -1.0447245573374211e+00 1.5255548161497718e+00 -1.5356719892159629e+00 8.8835595221465502e-01 -9.9439702212209269e-02 8.8548466002402526e-01 -1.9573587207440002e+00 -2.1477738699237073e-01 7.6815593423813319e-02 -2.2979230778223823e+00 3.7348081362002907e+00 -8.9360986341422699e-01 1.3423995458158358e+00 
        </Neuron>
        <Neuron NSynapses="40">
          7.5430720914073005e-02 -6.3053803428840527e-01 9.5497891631169085e-01 1.0485109849655914e-01 -4.3073439659648061e-01 2.7313134812505879e-01 8.5330464998831304e-02 3.3634626908148541e-01 -1.1743952662237982e+00 -7.0957066258035495e-01 -1.7956180716141137e+00 -1.0956781217304588e+00 4.2317991144696804e-01 -8.8764844300632506e-01 -1.0433647948801958e+00 2.0429983760165462e+00 1.6763351017498214e+00 -1.3442636607341742e+00 -5.8637198126509149e-01 -1.3735164433829961e-01 -1.3086791459547658e+00 -1.5637047390259057e-01 -1.5239387071674335e-01 -1.2780916427663540e+00 7.5555609023902670e-01 -1.0625844850214901e+00 -7.1288675927858225e-01 1.3400714284887698e+00 -1.6718695723870589e+00 -1.6163070941598670e+00 -5.8262780846324858e-01 -1.9793911836641378e+00 -3.3025455255748704e-01 4.2601811742874141e-01 1.3154835224751169e+00 1.5574298782757818e+00 -1.8828780557807054e-02 2.5470634255629243e-01 -1.1480330818593896e+00 3.7003643876627373e-01 
        </Neuron>
        <Neuron NSynapses="40">
          -1.8035442396595132e+00 1.9192012364914297e+00 3.4370805236967972e-01 1.5105605595266207e+00 9.3294696656165688e-01 3.0822900359214100e-01 -1.6996578375540821e+00 1.7126668809463557e+00 8.4344273513130552e-01 7.8286492119448425e-01 9.1052039929335327e-01 1.4662636413835162e+00 -1.0958429687115812e+00 1.7350624681540944e-01 1.3336344782676310e+00 -1.3894476691722633e+00 3.1168269846315588e-01 1.1948327090445876e+00 -1.4292027040337600e+00 -1.5641065651071600e+00 -7.2641732371560730e-01 -8.3696453568305595e-01 1.1883618155705578e+00 8.9512731822582514e-01 1.0516851237096116e+00 4.1453484800007256e-01 -1.8279398695349853e-02 -3.0918282034002653e-01 5.6188947402258760e-01 1.0797431035966838e+00 4.7972888822537019e-01 -1.0189877465053139e+00 -1.2692120959132982e+00 -5.8433763087258972e-01 8.7389586172236766e-01 1.3116439996016585e+00 -3.7625289214472762e-01 6.9387623773465934e-01 -2.6946753217356056e-01 -2.1190829431271088e-01 
        </Neuron>
        <Neuron NSynapses="40">
          1.5236603868808292e+00 -1.2849978355040641e+00 -9.9863521764290264e-01 -1.2840866620960869e+00 6.8290871477366066e-01 -4.8314978563531458e-01 -6.7163141043830632e-01 4.2368580160900726e-01 1.5245244926210517e+00 -9.4240151658993943e-01 -1.3080794648347921e-01 5.4246299033203715e-01 6.5848018037508105e-01 -6.2040299388390729e-01 -9.2072829482181784e-01 -1.7900507333787157e+00 -1.4090938691506565e+00 1.2829432800890930e+00 1.6773967380812396e+00 -7.9656677571097387e-02 -1.4250276666126558e+00 1.0628714625349345e+00 6.8428002549685696e-01 -1.2610471288387251e+00 7.2896159916908543e-01 -1.4231856258018687e+00 -1.7201499324629888e+00 -1.3249933925487709e+00 -1.2824458653152400e+00 -3.7574975671645300e-03 -1.0377905314269005e+00 -9.6911423171367539e-01 -1.7260816693253129e+00 -3.1430143423578272e-01 1.1772686940032318e-01 9.9038974780338407e-01 -2.9456694166928488e+00 -3.6279883911782262e-01 -1.2459500071517162e+00 2.4745409263204046e+00 
        </Neuron>
        <Neuron NSynapses="40">
          1.3285654612732845e+00 6.0963840541608627e-01 -2.1161501370289864e-02 -1.3442078466550855e-02 -1.4003745470128823e+00 -1.6385004206099694e+00 -2.2285050057900522e+00 6.8862521539336086e-01 -1.2545138043439614e-02 7.3387430455860464e-02 1.6040073845891325e+00 2.9290600060119026e-01 -7.0400851167631728e-02 9.8151910102931250e-01 -5.6322160585197190e-01 -2.1615313729189185e+00 -1.3588168549986497e+00 4.1750759591686150e-02 6.9936754202016860e-01 -5.0964723512943483e-02 -1.0041086114459543e+00 8.8636929170769777e-02 1.8956459258296710e+00 -5.1336449148499241e-01 2.1443215654393363e-01 -2.3264326084083318e+00 -2.3228970260288501e-02 -1.9833542252570566e+00 1.2505962602458306e-01 4.5839083992373797e-01 3.2618154723238115e+00 1.4638714217930762e+00 -1.8367358770481734e-01 3.0436831014712781e-02 -1.5903737290342683e+00 2.0520191384817248e+00 -6.5057445194864383e-01 -9.5793040065357549e-01 1.0463686516371999e-01 2.1923636153093246e-01 
        </Neuron>
        <Neuron NSynapses="40">
          -1.2877951375754007e+00 -4.8885681155508298e-01 -4.8142107162038954e+00 -6.5265720712554265e-01 -5.7322938655826983e-01 -1.4704044349606169e+00 2.3272000940790122e-01 7.1194132742165517e-02 1.4282078005306911e+00 2.0261985521173163e+00 -1.1431768344696314e+00 1.9830691556769990e+00 3.1464202141313416e-02 1.3635809129613972e+00 -9.6856176536908964e-02 1.0712227207486806e+00 6.4114531056487123e-02 -7.3147981103647342e-01 6.6355938990475460e-01 1.7181882323192623e+00 -5.6802291912998915e-01 -1.4158892573369148e+00 1.4330979782773685e+00 -1.3649401220624557e+00 1.5862621751661004e+00 -1.6214743396485145e+00 1.1266442620989154e+00 1.3898928140807998e+00 8.2380848533245776e-01 -1.4316039723920508e+00 -1.2848487810428160e+00 3.5354646074119289e-01 2.7108675038995644e-01 1.6310038153769848e+00 -1.4508300712807998e+00 5.1094753774682825e-02 -4.0951066161632266e-01 -7.5006211306393222e-01 2.4355949071438032e-01 -9.7665197990724051e-01 
        </Neuron>
      </Layer>
      <Layer Index="1" NNeurons="41">
        <Neuron NSynapses="1">
          -1.3096579075398367e+00 
        </Neuron>
        <Neuron NSynapses="1">
          -1.5886874442911294e+00 
        </Neuron>
        <Neuron NSynapses="1">
          1.7211498189359593e+00 
        </Neuron>
        <Neuron NSynapses="1">
          4.0950604251668103e+00 
        </Neuron>
        <Neuron NSynapses="1">
          -1.9810326867415076e+00 
        </Neuron>
        <Neuron NSynapses="1">
          -1.3574911040430451e+00 
        </Neuron>
        <Neuron NSynapses="1">
          -6.5270738520913629e-01 
        </Neuron>
        <Neuron NSynapses="1">
          -7.2560587857611691e-01 
        </Neuron>
        <Neuron NSynapses="1">
          -7.5643423841218882e-01 
        </Neuron>
        <Neuron NSynapses="1">
          1.5008232729263407e-01 
        </Neuron>
        <Neuron NSynapses="1">
          -3.7564802934419450e-01 
        </Neuron>
        <Neuron NSynapses="1">
          -6.2060225343372399e-01 
        </Neuron>
        <Neuron NSynapses="1">
          -6.0838205481247187e-01 
        </Neuron>
        <Neuron NSynapses="1">
          4.9886138846074657e-01 
        </Neuron>
        <Neuron NSynapses="1">
          -1.4056452879463674e+00 
        </Neuron>
        <Neuron NSynapses="1">
          7.5554940526506742e-01 
        </Neuron>
        <Neuron NSynapses="1">
          2.3385628286337394e+00 
        </Neuron>
        <Neuron NSynapses="1">
          -6.2784089364643703e-01 
        </Neuron>
        <Neuron NSynapses="1">
          6.1518063500411102e-01 
        </Neuron>
        <Neuron NSynapses="1">
          1.1252769240957883e+00 
        </Neuron>
        <Neuron NSynapses="1">
          -1.7556254506875340e+00 
        </Neuron>
        <Neuron NSynapses="1">
          1.5444415735327730e+00 
        </Neuron>
        <Neuron NSynapses="1">
          -1.4088606576969522e+00 
        </Neuron>
        <Neuron NSynapses="1">
          1.1152130559863067e+00 
        </Neuron>
        <Neuron NSynapses="1">
          -8.7686010947804205e-01 
        </Neuron>
        <Neuron NSynapses="1">
          -1.1325864005144406e+00 
        </Neuron>
        <Neuron NSynapses="1">
          -9.3880487545151681e-01 
        </Neuron>
        <Neuron NSynapses="1">
          1.9416665606799985e+00 
        </Neuron>
        <Neuron NSynapses="1">
          1.6832941390164997e+00 
        </Neuron>
        <Neuron NSynapses="1">
          1.0525016287655020e+00 
        </Neuron>
        <Neuron NSynapses="1">
          -1.4556684420779757e+00 
        </Neuron>
        <Neuron NSynapses="1">
          5.8409095182798154e-01 
        </Neuron>
        <Neuron NSynapses="1">
          -1.0138811579953493e+00 
        </Neuron>
        <Neuron NSynapses="1">
          6.5113128966286926e-01 
        </Neuron>
        <Neuron NSynapses="1">
          -1.4217301690336110e+00 
        </Neuron>
        <Neuron NSynapses="1">
          1.4393619757101410e+00 
        </Neuron>
        <Neuron NSynapses="1">
          7.3604291505668984e-01 
        </Neuron>
        <Neuron NSynapses="1">
          -8.0845654133735989e-01 
        </Neuron>
        <Neuron NSynapses="1">
          -8.1377306910176672e-01 
        </Neuron>
        <Neuron NSynapses="1">
          2.8638806219510010e-01 
        </Neuron>
        <Neuron NSynapses="1">
          1.1733038098915178e+00 
        </Neuron>
      </Layer>
      <Layer Index="2" NNeurons="1">
        <Neuron NSynapses="0"/>
      </Layer>
    </Layout>
  </Weights>
</MethodSetup>
